{"params": {"activation_function": "relu", "batch_size": 256, "epochs": 100, "learning_rate": 0.01, "num_neurons": [32, 64], "optimizer": "batch-gd", "num_hidden_layers": 2}, "weights": [[[-0.03784240338174046, 0.08451174153844153, 0.19404885046419482, 0.26600647930424187, -0.6026820001299851, -0.013177899472853543, -0.2904026795573609, -0.09006372236507865, -0.0031924118280001776, -0.3166269383808723, -0.11783716771938972, 0.055944288586242744, -0.16420448616723476, -0.2134725803611105, 0.3011971603004011, 0.4628370847628718, -0.13850878155077556, 0.4795994809754721, 0.07928980876695417, -0.09114671684229728, 0.3745181857161468, -0.3778403422144348, -0.18208860983957673, -0.5695485754701278, -0.08518305797388066, 0.6572464698563988, -0.07897400456752478, -0.36695297379364067, 0.2910542210926882, 0.14254367714173075, -0.3632505578104585, 0.3491443691647061], [-0.4264283162622129, 0.09667056486482939, -0.6385664702981665, 0.1429416883195067, 0.015610066147621487, 0.20572092839651307, -0.32573779739298436, -0.6984422713509516, -0.19070241624514572, 0.5821120143094394, -0.027082145630582147, 0.37969950681005354, -0.4443682788068095, -0.1628504271018496, -0.0666755773976521, -0.30064904061076564, 0.5468248582471075, 0.03581687608247867, -0.2980379340706507, -0.019998900531179347, 0.14935421875148056, -0.15496987892084965, -0.5873489527419551, 0.28001117901391337, -0.04615042262282965, 0.30643279082588193, 0.12633948438149223, 0.1988268967353827, 0.40983188519625596, -0.32360335031461096, 0.04971637676336769, -0.07405296111422179], [0.3853819647033314, 0.01339584998191403, -0.18630381281040503, -0.08810319238362402, -0.6372024370832375, -0.016796235783725553, -0.23712830211005206, 0.1399629892154638, 0.23733200061151793, -0.13278308063982242, -0.4834995444805964, 0.44262275854368316, -0.7618884975457638, 0.08027975636119548, 0.28265172905995345, -0.4760549584668001, 0.10969716401210737, -0.6279304470039154, -0.08979862300277026, 0.2837080292565691, -0.5852774724595553, -0.0676749932513954, -0.0025230995025378473, -0.5790967815139577, -0.2318399461472854, 0.32830878195120006, 0.635959566935694, -0.2660476621310105, -0.32356270622333216, -0.7355520644519874, 0.1534274874775892, 0.838084741009574], [0.3404406708832649, -0.05569541193684268, 0.14036894812938944, 0.20162783745905732, -0.004561451129774536, 0.1732858180848472, 0.25978488231906344, 0.010108966545964394, -0.13359998527654934, -0.5739587961328234, 0.21346882177560023, 0.9211927489319046, 0.2455275616048723, 0.17688132293446787, 0.04625850340729248, 0.09482848773433188, 0.08447139751217432, -0.3577203124121189, -0.19111526179201757, 0.17126777109380958, 0.4490534190629339, -0.5211156610755922, 0.37498962353444987, -0.43994319798671183, 0.4863886304746195, 0.1843812546966642, -0.3237331716147852, 0.3005332138571089, 0.15826287043910447, -0.2624225918978914, 0.1664601855736101, 0.3614620115928453], [0.3721328337372096, 0.0776111478110372, 0.07043101771137505, 0.2880587732893121, -0.2867969346528121, -0.2892051961818764, 0.10690277151015666, 0.13501007355157404, -0.03708255079669609, 0.5723843358328646, -0.10148801828282583, -0.5531865354223108, 0.062308954788918125, -0.7687724942890755, 0.006052427087944449, -0.2774028467866754, -0.2233250553507649, -0.009929645755713857, 0.011259581505836516, -0.026556621699793826, -0.5587477431923146, 0.4564807323481691, -0.09393375544307321, -0.21899285079804554, -0.05940229559616954, 0.24208756819064664, -0.26663479025763287, 0.17514952211238577, -0.14944515229931746, 0.0029373862541626997, 0.13753506848863115, -0.2205663948495051], [0.04754400967258828, -0.4022871361530635, -0.14875564757111331, 0.11572318329828571, 0.17085901654110033, 0.3546303000135019, -0.049717276196876686, 0.11766082988033913, 0.5417487246649776, -0.21784811109325433, 0.29198439240382945, 0.51539198229613, 0.350287391543864, -0.21327039117411054, -0.04711081213055225, 0.09622986430233484, 0.16336945173076292, 0.8189107510547251, 0.22544400697643638, 0.020213318727471487, -0.7738324282026954, 0.16234467719003662, -0.27958252208670126, 0.3633846124604608, 0.01487713430319315, 0.3324890225247911, 0.5771969679639393, 0.3969878473609948, -0.11888094546082706, -0.09346188955319867, 0.033396450596035375, 0.15550734629131932], [0.07102769147771151, -0.269865661885261, -0.448620736053992, 0.0467465750424603, 0.0043082735566529135, 0.11694435237733689, -0.11991263657161347, 0.23177633092359065, -0.2570771743087014, -0.15558785733915562, 0.12586695484572355, -0.4965691558834034, 0.08382289837829006, 0.09670486631099523, -0.20038616073704252, -0.7092673518741729, -0.25330855013256276, -0.18728378889540578, 0.018681327986486435, 0.7575972822722374, 0.19063602908511035, 0.5298777682314963, -0.4930825687753298, 0.6708627972453806, -0.2963047144832389, -0.38424050758620537, 0.5110636364800285, -0.11399540127301964, -0.21439091666454124, -0.07138823489016716, 0.2169866981269192, -0.24033447327323235], [-0.4128242193919957, 0.24421488961625587, 0.04107571824243563, -0.07420436204062256, -0.07404857498954442, 0.08649475210959884, 0.3306084416531009, 0.10631244097123176, 0.585715062032033, 0.07232078326421844, 0.03215375833267904, -0.14650637209129658, -0.27707086189911784, 0.0017976914271413927, -0.4844170612735291, -0.11268443286519415, -0.19525309370290217, 0.3193402113051241, -0.02886368280485237, -0.021009646887134397, 0.026798767919061696, 0.13277188799296197, -0.12112395922356972, 0.38956922663128374, -0.06185284265895325, 0.07577981168209358, 0.0792567280376913, 0.1558247740340359, -0.15089484985775672, 0.12415356748653343, 0.10702794078303261, -0.1399001774093253], [0.07996402083198717, -0.15033960014766887, -0.07369088831417372, 0.7862903549305694, 0.08192405133213371, -0.15899963006600815, 0.1654017112714715, -0.18409580552911947, -0.01124874384869969, 0.20771541354537662, -0.23991697855098884, -0.16929199266176756, -0.03974575628476561, -0.21241989746188775, -0.4736736454275812, 0.23323149074233612, -0.1735710019862524, 0.41339537041048796, -0.6346405937317843, -0.5115134100298343, 0.1553509990716019, 0.39630744490371017, 0.16947128073577358, 0.5714509261426375, -0.37782357954078855, -0.4930664467494544, 0.1300221631992711, -0.08690546833224365, 0.40329965758388003, 0.25035590969529165, 0.24785665677891355, -0.19161851030725846], [0.11184544121859909, 0.027835239235483186, -0.15276750435080608, -0.3368082965902446, -0.2307076488173135, -0.4162910852161352, 0.3576919643688472, -0.42938770831870837, 0.4269081983721546, 0.00761426644184946, 0.4718176447678063, -0.04006436439162906, 0.6588467853979342, -0.006720839380554357, -0.3084840515214538, -0.4653251754953299, -0.11775789424651593, 0.9364984143214996, 0.19556905357701035, -0.00905471472379287, -0.21000237835738014, 0.16400189715413474, -0.20272078028978854, 0.14040370716933528, 0.21017539861923598, 0.6764567033952085, 0.03639293007472111, -0.17587541262162779, -0.12019755539232209, 0.17420555545568814, 0.0032053522491584598, -0.044099549253965906]], [[0.20284497059574744, 0.12060780409098205, 0.11457152006317417, -0.16027854751484338, -0.08520617891616991, 0.19351324029938774, -0.013245192554237537, 0.043289780697101, -0.26256285504431176, -0.0467476263418488, 0.016385724560569245, 0.14737310866125303, 0.04830522369889747, 0.24840513342004225, 0.27725150134460713, 0.05762637751225135, -0.15615902830494652, 0.07781967450704945, -0.09033072589562144, -0.08883142540916814, 0.1794240746595005, -0.0026464297352624734, -0.2417865376388546, 0.09219477382614923, 0.03591657334924963, 0.01564322815890348, -0.2582368935421313, -0.012181358456978743, -0.3052960317317117, 0.06347257986103808, 0.19308286389277016, 0.1938417198735866, 0.27468113459962734, -0.15467878624364284, -0.07131655667839798, 0.09894787339038728, -0.1267330286733059, 0.14635026588952485, 0.07173899736584616, -0.2648690878132468, -0.03728366108788877, -0.009576907740152928, 0.04549440422996725, -0.2736964091242925, -0.008894726881167679, -0.14568287970428573, 0.05116619940456817, -0.24055043831688427, -0.187571076606352, 0.05662416694964697, -0.08319847364112001, -0.19969941613762107, -0.08042024323501464, 0.31570202688492405, -0.038916033782538384, 0.1675320796387762, 0.031543090552637314, -0.18651491606348572, 0.0942370681439294, -0.21654324573913744, -0.046739453560898286, 0.11465728857955997, -0.0903549294698078, 0.2967400922512721], [-0.04767322644450949, 0.30417612729009524, 0.02459517884868499, 0.19445940577796497, -0.21239017563468582, -0.21634834186038096, 0.13882726692934, -0.14907272891089804, 0.09494840275242383, 0.006995498907673006, 0.10635034715644369, -0.02455237101986082, 0.08990366933962621, -0.08121864385509822, -0.08062288254356147, 0.02698233606459841, 0.31593542453427415, -0.07311542442256831, 0.05479129642461967, 0.06773631372705248, -0.3612484261203444, 0.3248032812832394, -0.30814022401005936, 0.24890545324589144, -0.05784818221483235, -0.1171592337053758, -0.23488707979529985, -0.060793759611480064, -0.18267172343930965, -0.01792775847738576, 0.0006999107562424948, 0.09022020382095108, -0.056385129562522666, 0.06492044717968948, -0.18493781490478414, 0.029100337122742435, 0.09242089060134531, 0.5623356941555137, -0.05873118795266394, 0.03765456758814543, 0.13253375891502295, -0.01486633940956167, -0.10219220487771988, 0.023091867033687555, -0.10457994746345858, 0.21058494230342803, -0.14747911937873673, -0.20371232887016766, 0.1346858995924201, -0.18063938402278631, -0.2166495473847964, -0.18022681174951002, 0.11568168526241189, -0.33500512959787904, 0.2641591964080272, -0.15076218890130266, -0.2160319295947612, 0.18896962487609417, -0.09896159232407643, 0.1552688553475689, 0.2552292126523389, -0.09100595265961842, 0.06782952817583335, 0.04813671435859249], [-0.6250581575478852, 0.04591658293602231, -0.338375599098593, 0.014299678790484957, -0.17240945814750822, -0.017086463756175712, -0.08026605580495842, 0.05996070733548885, 0.057565565545376736, -0.09605900611568444, 0.02426798187327671, 0.10516885420742203, -0.2158326506376385, 0.053684331345101, -0.08592911104783986, -0.034953212033615594, 0.01739889049857312, -0.4556348877461333, -0.04920268971117275, -0.05118631160325014, -0.1387338518245252, -0.028968369914066167, 0.19119453205340753, 0.015405220431417031, -0.08789978666657343, -0.2037339941410677, 0.016109605154429312, 0.331510484435077, -0.18134589070350182, 0.2761804262586066, -0.0886995647375152, -0.006930419187806901, 0.058225674131689546, -0.044721916374740704, -0.05586281691272862, -0.06588255363197042, -0.2533798893882788, -0.5029447498745134, -0.15053042067964528, 0.15315194733955462, -0.10911622453379265, -0.0247668193872602, -0.17980464113746622, 0.2400100694318678, 0.056199275231482854, 0.13614029568468697, 0.17228423658064768, 0.2963796440857555, 0.1441987489174383, 0.01509540023577734, -0.12770967584388315, 0.2018959671443938, 0.018860323140747676, 0.2604088084857524, 0.11030309647094516, 0.34312733593272243, -0.17137544281186984, 0.00965087639813258, -0.21750985743720122, -0.09639138517100025, 0.0529014513262582, -0.028785215555239767, 0.05306274105671176, -0.051856853864963866], [-0.3196452301841788, -0.028280677673811386, -0.11573228077364373, 0.09373404761849952, -0.03584854348199422, -0.18953762510742414, 0.22260685364650973, -0.18477045344705287, 0.25376402966878375, 0.34468958422668255, -0.17401044177997993, 0.008841344365138865, 0.02295443256247605, -0.2321488052539782, 0.3933219657686792, -0.004936431705186052, 0.2754032544412763, -0.04458124927326815, 0.10948429228709607, 0.29712394494641875, 0.026403315354079134, -0.14438672396353178, 0.061065651361359, 0.07877217886812649, 0.10175493728278995, -0.12969205084661983, 0.27628718017027587, 0.09510625159823165, -0.1602711260236317, -0.2029061124358983, -0.02965443749485453, 0.020012403459598076, 0.071175477056656, -0.0920932084602456, 0.017627976420133352, 0.44970038715513816, 0.06029561334153716, -0.1797564526135209, -0.1274785526871131, -0.09145278960927195, 0.30886971385034473, 0.09208767640180947, -0.23994930654445212, 0.11635736411062604, 0.008705414725537312, 0.05815859834545511, 0.21697871555440057, -0.074645415831066, 0.11652516588706262, 0.30752653440282, -0.03306340270698435, -0.2585401613699547, 0.1158428629488137, 0.035668079240359744, -0.10391628402418174, 0.4110693243639937, -0.045343422436295876, -0.08373440441894939, -0.08114015848375142, 0.17567491287549744, -0.18090370345905524, 0.04811231074144775, -0.17305431050699388, -0.22465148835845458], [0.1385422707921648, -0.04197093102882911, 0.09501174161579977, 0.14911236374991468, -0.1889586390075886, -0.1362233120930254, 0.09256508801269987, -0.03955183774081771, -0.07080642199391676, 0.09749915080091158, -0.0421941371340563, 0.01030722789067313, -0.11003574810252852, -0.20563312137977213, -0.052557335823450145, 0.22528726413025363, -0.13951213023681286, 0.17491076023267027, 0.05005551034827239, 0.16106585556228703, -0.3860374798276618, -0.17421968422575745, -0.06179763204669127, 0.15026534050353846, -0.16802653577638604, -0.21975028237822244, 0.05247924318966632, 0.29400570907322804, -0.12130618308224621, 0.1194138110798995, -0.14378154709083116, -0.11681809010902111, -0.09776500545253645, 0.1520539086340499, 0.21596489472680075, -0.041188011521328165, 0.0011910913313714078, -0.07727615932066523, 0.10069601484896075, -0.08546393780557522, 0.2266242032196154, -0.15026172736242452, -0.1031390022881745, 0.15389280857156146, -0.47084480222270725, 0.16661926204288333, 0.06554194275295189, -0.026754708749999412, 0.17682402751052986, 0.02643924401195136, 0.21333727705364108, -0.19242794159835183, -0.4391082620616987, 0.003293149816119519, 0.29520563709741116, 0.07174342056165262, 0.2951567658734289, 0.21312649774770612, -0.20692400247403647, 0.17783911385709303, 0.2813547343284929, -0.15023245135863117, -0.2535044153471193, -0.1793716292761748], [-0.09595193754334518, 0.002110974390603933, -0.0022024427065300946, -0.08585860858271639, -0.25234651265160074, 0.009464872665166024, 0.04869498362279451, -0.053029028794363664, 0.050666963936622, -0.08284558663018375, -0.06878950297608769, 0.2327228028018682, 0.036342412713860975, 0.4211443856018611, 0.06063403142862331, -0.4686017077021927, 0.06789616128864147, 0.14976924826770666, 0.04258203942350439, 0.020481481564110122, -0.23343010838130354, -0.4959880639681451, -0.07284626271235867, -0.12124475349018089, 0.09688179304420376, -0.114901615430368, -0.24301845485958137, -0.3746305826308072, 0.3568697128545845, 0.04719095871505923, 0.15428266657886172, 0.10799714066168166, 0.12572864148672086, 0.0429581534207391, -0.08083655276325227, 0.1860585367248278, 0.09843137094144333, 0.05988943830936765, -0.15329464771802762, -0.1599439464914314, -0.15371637846300884, -0.016599885100449855, 0.126395980656258, -0.0013009119351155799, 0.3227605779825649, -0.23976674928690273, 0.20738139541454015, 0.2656198332211948, -0.07454120764974904, 0.3753301000497124, -0.1285570264146152, 0.2407075528578538, -0.15121295045448355, 0.00861721560415695, 0.008666533874047897, -0.07154287375858502, 0.12792371828913757, 0.04434044482698844, -0.2193446105052775, -0.1712603973758125, -0.04462096267086344, 0.3161820316712308, -0.11664473320986417, -0.031228696306183024], [0.20873033692627835, -0.1722640182287292, -0.013070309117924672, -0.007066723306863394, 0.24428727015409488, -0.19507187258700298, 0.21965883334698957, -0.09811859452020354, -0.4170867878863176, -0.035915196467486636, 0.14695876278718223, -0.3154199552554114, 0.07807551088211365, -0.09449325954516996, 0.008108255136493148, -0.1620362217903793, -0.05251176518354431, -0.10822823682216885, 0.4563829467842833, 0.13249393913114818, -0.02689153158611809, -0.004773090343059731, 0.06693071517345096, 0.396632206954279, 0.12409968607671043, 0.2561815356158912, 0.05628503303709629, -0.4340156915389008, 0.24146402311414722, -0.15382313733512337, -0.08729805803285606, 0.059853586803383096, 0.34756934653743604, -0.009630809779392478, 0.13436301813004814, -0.05156212425791355, -0.11176758283631918, 0.04874534735896241, 0.028438133088948877, -0.013513459531306138, 0.1636345387760284, -0.15212893659985524, 0.23511587209174475, 0.005331826667523452, 0.13412337966494253, -0.05290549303360268, -0.13826195833245528, -0.019569116923657637, -0.12865903205368714, -0.07070981851796522, -0.033432130703651405, 0.1391449833572341, -0.10149830367231406, -0.06304646641372279, -0.010684119443427901, -0.003590190234223568, -0.03682624990739947, 0.33588314332557745, 0.10519802952441296, 0.15059909798132584, 0.06405067659784679, 0.06392544147203896, -0.07933019662382501, -0.11166429211241484], [-0.05696297130436639, -0.0915542300181559, 0.033386821504644615, 0.121215009364873, 0.18983732686829807, -0.07563914411120946, 0.08468551335073352, 0.2425032079054266, 0.28150109205138746, 0.05790546869577931, -0.09132585346190548, 0.14332842660585307, -0.13603319015764215, 0.43907692586681746, 0.1041866923708434, 0.06709496111148064, -0.048627124911759134, 0.09987159406975268, -0.06336294562091997, -0.12930367904447573, 0.501246255557486, 0.06102972805669513, -0.3803278531129533, -0.027476551874501095, 0.031472650963629674, -0.1291651395701802, -0.011628689416960035, -0.23261332199571966, 0.1125327607734944, 0.2817161419613968, 0.012387503925369461, 0.2897993873515677, 0.004205617606494475, 0.09758968462701344, -0.10842543971824875, -0.17714526836599953, -0.016268838179380875, -0.044045558306342825, 0.3285660442833723, -0.12557423749685123, 0.09426724109745527, 0.03610804176043397, -0.21123672251954667, 0.07061812059064212, 0.01728963778983203, 0.12234397596124293, -0.24697316862905813, -0.02075079595897037, -0.05862295742345885, 0.098507227922925, -0.1523444415121287, 0.10891242263016619, 0.03419576745861758, -0.03779044918748106, -0.2501303321997264, -0.06833647312212834, 0.08295919773952544, 0.376928050103096, -0.038078004794154574, -0.13792200716186687, 0.0957976006353846, -0.23468712575532522, -0.026256736897425248, -0.04042832589174969], [0.42820201428214344, 0.09536400974979033, -0.0336784286992321, -0.07217100305090213, -0.03049677936724851, -0.043490528335780605, 0.19443900385892504, -0.05864428573633803, -0.019428071476269827, 0.17859440297339663, 0.17500287662617892, 0.06378691253613042, 0.11766166540690862, -0.04990168030014508, 0.2705943054344345, -0.03590704960130916, -0.17606890608221226, -0.17570666102465832, 0.055316896010902346, 0.13588903331883467, 0.11024989962437277, 0.12354525621592889, 0.06959060955037978, -0.12561940979377115, 0.170498977533511, 0.10374120672337166, -0.06031351253729508, 0.10342403786831797, -0.04184529723374243, -0.057496780375215474, -0.13423981792983822, 0.22681306917309416, -0.0052540322081800145, -0.32457053179538936, -0.12988449015826897, 0.0910941084037449, -0.1303183849686498, 0.13078357646433367, -0.08373086731592293, 0.08059403057476654, -0.058803293546468044, 0.11376867647271093, 0.26593500616281834, 0.3301074969559656, -0.39703609475913426, 0.11309755090593628, 0.10050415716667564, 0.1502370321459741, -0.517090271560457, 0.24615129081555331, -0.2193361314638445, -0.29961594564089367, -0.041776478547143926, 0.03545414877540873, -0.05933042457707201, 0.038013510308343657, 0.23046355751800054, 0.3601913095528504, -0.1830994867027343, 0.22303000615916685, -0.13192136890249767, 0.04937062032242768, -0.1393263151742441, 0.2760291488334987], [0.23996380410712037, -0.30323823997741683, -0.11040800957715398, -0.37373683593740903, -0.04118016604505852, 0.04521419702856805, 0.05630331968730154, -0.2738877068767251, 0.03970435834774067, -0.0018769653144594008, 0.3787495821269953, 0.15071799016453552, 0.38932419187061723, -0.041873239641164635, -0.08703721139712581, -0.2706858884806361, 0.10466875798674667, 0.07166914678517225, -0.042527476501416916, 0.052231548221861344, 0.36927666549681143, -0.23007082544659016, -0.21737380189049726, 0.3493634798280366, -0.012182704972323067, -0.1343573720105087, 0.1904883097759342, 0.40021675411307395, -0.03467327156155963, 0.231351029346357, 0.03256212334097363, 0.21598394702091234, -0.13366290751290194, -0.24656915770574592, -0.4144035037415896, -0.11996876232595659, 0.06557352939592519, -0.008442918110965763, 0.04859040699564602, 0.09387146640836312, 0.0038654140157603264, -0.14349354197054442, 0.21918196560141354, -0.0706278870028651, -0.015723479553886102, -0.1770653401164268, -0.03844559777092656, -0.060904452029652036, -0.05459934553932466, 0.048217473234436585, -0.15346143654957034, 0.12874942514535484, 0.04822107971857149, 0.10790964370517517, -0.1476338330342607, 0.3312557407164469, -0.4057215039810485, -0.19262956098071346, 0.21052505683847708, 0.12420861110788811, 0.3285685056559682, 0.11226430927379871, -0.08418596968547212, -0.008658590904883457], [0.293833297604878, 0.15082450852995383, 0.12038719585375045, -0.14376490827865782, -0.07765957727740333, -0.030137792160696175, -0.06045395013222172, -0.008060792895117706, -0.07438805028250778, -0.015969941003643583, 0.04359401996840996, 0.1504017641420873, 0.026539572561944707, 0.09178103654836402, -0.009726016875528888, 0.20462476501656263, 0.12844085998899588, 0.13147076961670182, -0.11525982974988709, 0.19844797107914466, -0.12831097826767848, 0.2702301609805352, -0.06878928354163491, 0.11539769567379916, 0.4268535767580842, -0.15166221223789966, -0.002846942425478236, 0.04019896295210862, -0.1395876769427747, -0.08798388522040558, -0.15737898360213207, 0.15344208415510777, 0.047994524641646594, 0.0497973555154618, -0.017774488084389767, 0.28926713547019656, -0.17281806431112182, -0.16512886916455313, 0.20469800872445734, -0.06988136317387726, 0.0021950811413732826, 0.011411149056038473, -0.13956943870821417, 0.24785587530651432, 0.18727994061070405, -0.10144498748883014, -0.14443276255964616, -0.18519232887454498, -0.282517596301624, -0.14659627599908173, -0.06026381801574279, -0.17014680840553537, 0.0889207503924693, -0.09389534678456564, -0.14813065392286942, 0.2586032355974438, 0.09234500650181017, 0.27913812710648267, -0.15386006908548894, 0.21009873809536742, 0.11157954119788265, 0.13698994023293662, -0.026271138725450137, -0.1788053555090199], [0.09000454607187641, 0.1152867142733957, 0.147938794838237, 0.21252270635892107, 0.09845280270649193, 0.16992293962588487, 0.061470462543197636, -0.14328459738792948, 0.15237971644247184, -0.12109495884964838, -0.2984968351910317, -0.077392416804067, -0.04750765208255951, 0.2913453799885555, -0.043259113920163815, -0.028334968832527733, -0.04066084405920201, 0.22872757260705515, 0.05690375275424165, 0.12760352545618087, -0.2373823111801831, 0.2895751289800462, 0.05796378887950963, -0.21174353946551105, 0.14045031716020173, 0.03280768812978575, -0.3720438318965317, -0.017648464118882535, -0.4095676264073694, 0.07451943924934289, 0.3630977397107204, -0.19291026663847688, -0.09074899960905987, 0.01684064672251799, 0.2092121315484755, 0.025808372931619764, 0.37013178462601587, 0.17086931380245873, -0.1801897392715053, -0.1387215793941853, -0.04073232254693709, -0.21539206011365222, 0.14165932154530808, 0.44100988793104723, -0.04675497106742528, 0.027021441790985735, 0.16478325055746024, 0.028496037393905153, -0.1609494677852146, -0.12514290381307175, -0.34002266715075674, 0.06373134800245514, 0.015947574440044566, -0.05623314023714216, -0.23320112685361982, -0.27422865705839045, -0.19261947098035861, 0.29997231266230295, 0.2305900696551715, -0.11748866580073157, 0.07441033860862256, -0.28137360441856574, 0.30073851339337365, -0.4812751812328527], [-0.24452385543992633, 0.08908570496081154, 0.06141699646201289, -0.024183153415043054, 0.1810358600907627, -0.17593535772016206, -0.26864141749902964, -0.0535617565607582, 0.24321360763938363, 0.022040209565204326, 0.318220396057791, 0.05097723880468482, 0.10938111532655383, -0.05055725082507794, -0.05977300829327944, -0.3485061817742534, 0.09794019042966105, -0.00534690597537307, -0.19957023002423352, -0.0872472587511336, 0.07315515026410513, -0.0019761896540550945, -0.06161415316039416, -0.2627542615784986, 0.2826218632689548, 0.027165668205214513, 0.08269862649668884, 0.1157364502764744, 0.09417080438484264, -0.12335542530942917, -0.11353610835839621, -0.18883137196291647, -0.05566738207397927, -0.055714794136157014, -0.028665799505584382, -0.18998902695065545, 0.07146616107756021, 0.20951426592582334, 0.0023942727766731193, 0.345964338466734, 0.22464587917293447, -0.03903470682005823, 0.21426354246447216, -0.12257160797418193, 0.3116459396439524, 0.13926953619161922, -0.13938378694411208, -0.027545136142372407, -0.10568249450740878, 0.3427547028008902, -0.2577966810986534, -0.022242122666442463, -0.36890432467212986, 0.06598298949548347, 0.04639020777727858, -0.11118950507560198, -0.1520473622711854, -0.17102494659501094, -0.0350774788821098, -0.3454678120374096, -0.12122338308195221, -0.31795351246322695, 0.14939982097724872, -0.004529027802153988], [0.1234226701839244, -0.0005885681037134371, -0.1138720663417177, 0.21052661066018097, 0.0451712370487349, -0.06622229780361512, 0.07380684187363568, 0.11504759980592608, 0.2626543230884949, 0.018801066320330326, 0.03604693419100568, -0.19902104244589355, 0.12954929519576847, 0.09739646191787023, -0.14228352061312832, 0.01689636646551454, 0.1526941865238367, -0.055400661749703144, -0.08103248864920265, 0.45493593338318744, 0.374422080887735, -0.060667152032276, 0.03813613869649104, -0.023658340274370665, -0.30160220036198443, 0.0628139901383515, -0.25627785045466883, -0.012590664172350682, -0.16258217997696342, 0.1122879965326598, -0.2804270773286091, -0.442918121208691, 0.17806411811094386, 0.2013551188015219, 0.04051958590588806, -0.11390646228421276, -0.06251235941915914, 0.037376693554463006, 0.2661396346063986, -0.09979915348416754, 0.017457118010574427, 0.14386058168450067, 0.1295446896202124, 0.10393722395728826, 0.05713782234695868, 0.07798231840053722, 0.07909073250455453, -0.10105369096260461, 0.07078867834203686, -0.19624702307253672, 0.3243644888488409, 0.012312413671476136, 0.27703087920255653, 0.06765692654450918, -0.11831726206337918, -0.0863325494989808, 0.029582773536562888, -0.03583263543008157, -0.2377311557437461, -0.25225805645707317, -0.20398447031162686, -0.22635372296630932, -0.013030055262963885, 0.09749124503550795], [0.2731021976894264, 0.05806399563666915, 0.23411639514649657, -0.2195414713305816, -0.2907615901307713, -0.12783967488789144, -0.008502314650818433, 0.022717524841803578, 0.14332555927842916, -0.07310231753150802, 0.047057880413791685, -0.1339167004382868, 0.20929931633707793, -0.13939097336099768, 0.04556238754838233, 0.09548322494449525, 0.015116413775249847, -0.004989182148443267, -0.25379469679457867, 0.024285655612268534, -0.05579878432475899, 0.04008892430687193, 0.12707713456446038, -0.16949131331056283, -0.03887293462464729, 0.10566002713879816, 0.4325669879413528, 0.05405575749550224, 0.2289331714517822, -0.024456800690630043, -0.292124125316682, 0.030152679990959632, 0.11111724254838505, -0.14958120857944832, -0.10574181394865834, 0.22439102385433266, -0.29108188545375224, 0.11654616974744644, 0.21838959068615738, 0.12003753628205485, -0.32936545819545476, 0.21243233891356128, -0.12070542589481228, 0.07065162106458833, 0.23542264387713754, -0.22842871460559672, 0.0013006534899638964, 0.033902461874460665, 0.1222138873200437, 0.09576318266660507, -0.3770379126907032, -0.08203914625292733, -0.11421485761894715, 0.4457514634948647, -0.017134164719600168, 0.0754829282417967, 0.05520522651581761, -0.16571150323063244, -0.029049901597564546, 0.17606810745752802, -0.06996402633377552, 0.006307320800914392, -0.4482116826638864, 0.07241888718005218], [-0.16413096412880224, -0.11913453932597616, 0.13705485753651794, -0.016404655070796848, -0.060344758656101234, 0.02476064389494534, 0.20459933224191526, -0.04609982198944061, 0.09063552058168456, -0.019102935648214577, 0.2241988959308092, 0.15816381988135772, 0.07076763855704649, 0.022066750526996606, 0.16860840922110415, -0.04332962511836143, 0.3360131817026194, 0.0979196732752375, 0.11237728359975897, 0.023907333893638947, 0.09228699819599703, -0.0824862591869711, -0.1396403014531633, 0.023340074299807063, 0.0895344345585086, -0.2005055707020384, -0.02941732245465115, -0.25910943318859353, -0.10813693568886854, 0.413815098963536, -0.2922859590278537, 0.2523845503970854, -0.08469398617853051, -0.008939293325706189, 0.05900103725424968, -0.14491080578343543, -0.13471579776884587, -0.4110511811762753, -0.019173875352694936, 0.10579193080793725, 0.12622802274936493, -0.021180941629755853, 0.028235370190595414, -0.0876057188576965, -0.02520631112261856, -0.10514519057771614, -0.08183814557484718, 0.11997203841397705, 0.12311437969429541, -0.023952172923884348, -0.08211578260242534, 0.31088122057596146, -0.07434139155348202, -0.027417627719160856, -0.0798527534246199, -0.029068206947083463, 0.007741655838608772, 0.009426465274574105, -0.26679996247375787, 0.10068772871762503, 0.21841512665145318, 0.19319658226685646, 0.06929396420069377, -0.13929230073541493], [0.10060068008973713, 0.15755942519745572, 0.0578033198704638, 0.3128260979108, -0.12635128631047604, 0.10446197963227977, -0.0656640089791111, -0.2196974400161663, -0.1930550264517693, 0.08609076116182232, 0.057518207270401696, -0.17957644938313633, -0.0436128901779499, 0.08765397150258399, 0.43648332252872085, 0.15360307306994722, 0.14048249355566145, -0.044716080787959536, -0.5214053693885555, -0.09130976911248206, 0.18607306288385542, -0.02563243896249961, -0.33255861698428, -0.12696086604492315, -0.03332136940562649, -0.2376821550960075, -0.14346458714445778, 0.07633930623060459, -0.23850023597507936, -0.36166213456535456, 0.10652071020762403, -0.11579598156297974, -0.07290671379459525, 0.27878040559441364, 0.13216926781957017, -0.05346383159051698, -0.34395744473757206, 0.08710405296771027, 0.0003870619597029167, -0.1161344093820472, 0.2836732867431722, -0.05420882762593516, -0.12734777163530364, 0.18325781231415686, -0.43675192711497207, 0.1098192680160681, 0.06333339429556219, -0.02687664218807361, 0.027899057003333828, -0.05346104953754973, -0.13216270516478318, -0.11328204897243828, -0.3079147661385931, 0.017453608487057716, -0.15941682872647148, -0.026964430223847494, -0.11447210196104217, -0.30900481440103605, 0.009515017446096728, -0.2977093047967336, -0.06382356638054829, -0.03668267410529092, 0.028214724284664566, 0.23513398800804727], [-0.14617044731461398, 0.5240958212958494, 0.08721600322949825, 0.0017400343385652413, -0.002949783040708097, -0.17190351478997595, -0.25926810915708504, -0.03003291758985839, 0.14395200163227626, -0.04748066846526506, 0.27602628497086235, 0.0009963509253104479, -0.17872222175558275, -0.10420230012705492, -0.09243566114710984, 0.09748592938345078, -0.10362796282734785, 0.19539554907463985, -0.0891284507113251, -0.2041672227118338, -0.17831660573633168, 0.006324429789845284, 0.08571901374314668, -0.13547852092171003, -0.11589544043865709, -0.06174513332803393, -0.17179780053335644, -0.0648476879007861, -0.35106235912203465, -0.026581080074460525, -0.11178699282730752, 0.002528233732699531, 0.22461984962002507, 0.374084292572674, -0.3124392934002344, -0.4012038928278294, 0.12798170457566568, 0.11332394710242391, 0.030224754987337586, -0.22675469597889378, -0.034277740423183156, -0.08587205869612834, 0.06816811881112635, -0.4528680242276232, -0.15555588274787546, 0.007302679258090656, -0.2538559649920885, 0.08171189854777672, -0.13100524433869148, -0.17742423785218892, 0.2489296619344496, -0.07758125369252378, 0.12329695276900977, 0.024347070059302183, 0.037985906149092266, 0.03290251017648627, 0.14540944121500413, 0.03435727021979187, -0.023784041327328826, 0.18744070471132127, -0.19473804199941216, -0.024255761959205424, -9.843638353993888e-05, -0.19028725822013226], [-0.00556607663275065, -0.09484432187622449, 0.07559235014338538, -0.06082405993706815, -0.013537937334291534, 0.004733438771248149, -0.29306922073138564, 0.24144719130453518, -0.22934244607582463, 0.12478935826549303, -0.16436500552810593, -0.13800018292699923, -0.08429318830697163, 0.09436467935752309, -0.05882946786052585, -0.16929899259064413, 0.13020031237606627, 0.13807238898221857, 0.07606948567598228, -0.013799199652078186, -0.10816861698177109, 0.07160843671804512, 0.07193778127500604, 0.13089351700730692, -0.05019541314785307, -0.05395088482758074, 0.11246200048499576, 0.030638071593414706, 0.2765669080768562, 0.01025202627933217, -0.008264234369005157, -0.029396521991435033, 0.5110207053014734, -0.08441640658018852, 0.14627318050723856, 0.22325455814258494, 0.16107451289941588, 0.1516661603122229, 0.2185103104218001, 0.07018808240652549, -0.19660761573900015, 0.03215906982218509, -0.29799966156488494, 0.01710747616979738, -0.016508816057484135, 0.03930209920399344, -0.15455216270396646, 0.14163600272797588, 0.028903414437315762, 0.007865940446734132, -0.23551827738771006, -0.06147621404398815, 0.12473878237394648, -0.09228423030793571, -0.19367599101209343, -0.12292575582795398, -0.15030246616097565, -0.1090076758096217, -0.06273241554095664, -0.3557417099949799, 0.30147611740114044, -0.11240850974782647, -0.04892038215477399, -0.2115048113474015], [-0.2958374849183231, 0.15490103993216758, -0.11943274316046931, 0.09052384233748557, -0.06940335066147427, 0.09543795288908671, 0.06559493905301825, -0.012468975902910054, -0.1459175290115095, 0.1557509294265274, 0.054583979018711974, -0.06027513221609991, -0.19542131736883075, -0.20413021296194586, -0.26019531664005274, -0.19437604593996982, -0.061170391641601735, -0.19289581498536357, -0.07793530454483455, 0.04493502978636519, 0.10254053831850844, -0.14174581834931896, -0.05094145971843809, -0.04452694562675719, -0.07282424703015813, 0.007004110526945248, -0.0918248948227109, 0.035411336425779316, 0.20057805220196362, -0.009674628225629318, 0.27849128004862883, -0.3667747588337828, 0.32132218458389844, 0.07187748737062201, 0.04150685055426621, 0.058195543723403215, 0.28459337193717277, 0.28237410965381393, 0.14261055023105032, 0.5743834436879232, 0.018640599277521326, -0.03319659517589333, -0.16505022824636248, 0.15846768228734506, 0.3492230978692982, 0.03549256039830545, 0.1945969515179068, -0.11968196119053558, 0.27887531662807813, -0.37731433473368564, 0.025445086180968298, -0.047159490581153256, -0.19526118613496132, -0.18486704074301372, 0.050800401583388485, 0.07291352933815855, 0.11327624690599802, 0.08863761156847762, 0.11377412747746378, 0.3026191114996657, -0.14203492622421426, 0.20109727425084176, -0.07057571752708243, 0.33977819938940507], [-0.2455618388156979, -0.4094039896234101, 0.11773830183557715, -0.3678810995702849, 0.08916580766875722, -0.14924228349266289, -0.10139807494713811, -0.3743244868403078, 0.12410187281281584, 0.04132888080990081, 0.01756065793472058, -0.12179908936661223, -0.08865861703316479, 0.02932447099464408, -0.36650786229057236, -0.0821844573099559, 0.2140543827954136, 0.07175855923057013, -0.08039912495792598, 0.18285370723135805, -0.15819454393263624, 0.0937634590091878, -0.015337513555428941, -0.10735912864757048, 0.002047255065473304, -0.15553483570332588, -0.21558823280382974, -0.14004112321979167, -0.06009359749278638, -0.09032240175044165, 0.3356054384931809, -0.3793698982319112, 0.17501789972877743, -0.04996092776039997, -0.11415319569855766, 0.017599327688808453, 0.1322517173942785, -0.06821296033402982, 0.13515201333943525, -0.13505387905992014, -0.10978618986836026, 0.18163641157366106, 0.2299673351197885, 0.04139935655658697, -0.23392152307484376, -0.011123489604022594, -0.039113851412209535, -0.1549073135746294, 0.05437686446678048, -0.20328534521098782, -0.13565879755184537, -0.4335654457812618, 0.020938529192846344, -0.05324384531189125, 0.13368865933258728, 0.3872944142576911, 0.3200885713787287, 0.13085197217073447, -0.041662099241769, 0.017500438282316687, 0.021372125331341432, -0.008605273806668088, 0.14025825871562936, -0.16726242744339512], [0.16528243314256977, -0.00966726165092114, -0.30842742130611267, 0.37785232169854543, -0.07934418143641359, -0.09016598586900133, 0.06990725750554237, -0.23715076566415322, -0.1957208730166393, -0.012928606742680161, 0.2814813832243379, -0.03455408142373577, 0.003866435297862522, -0.03402420905229156, -0.12021805633469493, 0.08203142847681913, -0.10597179491137287, 0.11062587874839522, 0.30979139260775634, 0.22118771460319134, 0.10192313503688609, -0.35385629318727935, -0.07132200416786137, -0.08491017840344935, -0.10877658894183286, 0.21647102579076752, -0.07996275971718941, 0.03476556477212309, 0.05292673061680205, -0.22162248995348557, 0.19957064750377354, 0.019386422330863164, 0.08276245865555382, 0.13746465299814722, 0.342004548949862, 0.23351505425689445, 0.003144036704782128, 0.016706001993124147, 0.11409881152877162, 0.25332324323600214, -0.07224657696031192, 0.19110069416108616, 0.272614255754925, -0.11147617719687936, 0.0636334050591405, -0.22151000565913817, 0.13407970078538153, 0.2709726186278808, -0.03536661534530317, -0.0858746990680392, -0.14425992974028296, 0.08854347498485715, 0.04215123327496475, 0.12695678183013032, 0.0417306425241829, -0.22126626745047917, 0.31067481626615256, -0.03369302775020748, 0.0544809420714103, 0.17757937043745844, 0.0946269855122999, -0.16299544283864859, 0.14146058072474407, 0.04902085306276204], [-0.021568988144521645, -0.268654183259903, 0.0313960513264464, -0.27783633899397087, 0.3643219802906908, 0.18867491988900004, -0.04287392729958418, -0.029423204817057066, 0.0952608849436887, 0.3123464114361315, -0.15426568906148935, -0.07851987875391384, 0.02828485176358784, -0.05121104699753879, 0.1689837934731023, 0.24364559082192283, 0.17317320415935702, 0.02153665741463738, -0.13259491617663222, 0.0533452087735772, 0.06284923430507378, 0.09169711156931364, 0.0661685670920223, 0.0009978354235149931, -0.17281405157559632, 0.07587428927795004, 0.025842448328982158, 0.0559492431248935, 0.013176199072991246, 0.2887452313093906, 0.15509634143559375, -0.02038339791634805, -0.03318298034405381, -0.3880416121404862, -0.26138983504109253, -0.16705589553705358, 0.2663068840638897, 0.22360076189379074, 0.028766634777194502, -0.024309813425737018, -0.10291447470559936, -0.3190227031629975, -0.12940447926786855, 0.052861457952998576, -0.06255951971200184, 0.15447803500871013, 0.015078900488620423, 0.1597756588871964, 0.10662128240749202, 0.1784300804299512, -0.1604578358337686, 0.021805679083181737, -0.2178299036388537, 0.35308593856240694, 0.1256144472548877, 0.12186229732038724, 0.0381518761072432, 0.013971307398271593, -0.0009008523270939093, -0.17443070257001422, 0.21261510034469222, 0.069279915811757, -0.34561331428487757, 0.20602167607144256], [-0.22291008267996754, -0.27995957652935755, 0.2723748208752895, 0.033754021212639526, 0.04873101981466974, 0.08774197091778563, -0.05745228134030081, 0.3320123575713793, -0.25844073091771536, 0.10327803208084844, -0.03627079472258166, -0.1754643802766033, 0.2154666804830938, -0.10518429590326335, 0.06455368788693691, -0.09959877013442806, 0.046454630735838304, -0.02474667637969515, -0.08172426721460634, -0.18749886546107253, 0.08815305909188738, -0.09493275856823769, -0.10890579060185447, 0.05039107461143018, 0.14940395367383794, -0.16980949204558554, 0.20732921745945512, 0.36882639838257447, -0.06176520253394613, 0.14718019870756816, -0.0027449613710705508, -0.3373650605840687, 0.12290818654494516, -0.22032504392915728, -0.2298034444095834, 0.13976971038867406, 0.07668076836125444, 0.24425965355527984, -0.04802149417576733, -0.1861774738669609, 0.3599205068905692, -0.38240554225295836, 0.21046607537901593, 0.5589682087084079, -0.23156611755859477, -0.0021361242057098035, -0.23301799840512477, -0.2363563140338438, 0.11122748279175793, -0.021541052920876765, 0.1129236325534475, -0.017461663489540785, 0.06414583982304058, 0.15252193152966492, 0.005848790288397542, 0.05800291711370154, 0.1742967009518204, -0.10346504892749653, -0.08913962642982919, -0.22606519822010712, -0.15326625600014354, -0.06454891089453267, 0.5629383962441239, 0.15932254773799], [-0.15470517581549462, -0.19239230314302996, 0.1366695161912864, 0.09009606937908655, 0.013975628518250164, 0.1638194641510001, 0.06412410455200263, -0.13290896361373672, -0.06180057795244901, 0.024020345183297476, 0.08059762027446415, -0.2296297577961117, 0.12229940596264, -0.23074826623169592, 0.0019328796065116371, -0.1696614733005646, 0.23930701420617326, -0.04078866349970308, 0.05246180377739615, -0.1524055019429432, -0.1616542369348302, -0.1432931678945684, -0.04025753163724111, -0.10493393956011632, 0.0957159314440815, -0.004695941140134205, 0.3286061990788792, 0.0666692400494911, 0.27594466149680874, -0.2599931460374948, -0.110759738117531, 0.4343274570726186, -0.10102563711043229, 0.040159686700614726, -0.16203992261314445, 0.06747316545170977, -0.006774700869850566, 0.037193530653020446, -0.28666654115758206, 0.24568057357245446, 0.07509784150378242, 0.11217742183740192, 0.3040715750422685, 0.30642177494523914, -0.09085732290698703, 0.23040737756128282, 0.06452846530452604, 0.19922245120235887, 0.26290901170776876, 0.31196456840464787, -0.03363450253614606, -0.014218242821479517, -0.10362751941746133, 0.023171081323511738, 0.09892133297143624, 0.13711503292390056, -0.029045278338016022, 0.1587526451972998, -0.03349263258046623, 0.08566432047484082, 0.10852445749779756, 0.1394595113076317, 0.20342952226075672, 0.16036079137873463], [-0.0220775860396533, -0.04276749580241164, 0.058057945038897864, 0.07259201291023681, 0.13705753626345676, -0.22554327385285064, -0.28418657732024155, -0.01950278681918386, 0.13385017696201681, -0.019227811476543247, 0.015098839322114444, 0.10425362811642079, 0.1532991660147357, 0.009902522047638133, 0.03942735173102602, 0.0252316979022649, -0.13594558364900955, 0.15062078445887864, 0.03523927915409042, -0.3380398401008388, -0.3503281760375517, 0.20119806002858542, -0.1073648942515058, 0.1495059461899477, -0.10212808520613154, -0.28879794800875513, 0.19893074080297177, -0.20350660058362122, 0.018539482609970282, -0.10727063427585697, 0.0737048166461914, 0.011435319203981479, 0.08849386986037687, 0.09599537383444205, 0.07335739168979803, -0.2012250990359294, 0.1630977880578141, -0.022753683372281338, -0.0801943958634922, -0.16838349624447588, -0.027434622263892965, -0.1447804135133532, 0.2085096495838165, 0.11390769347280767, 0.0050895387521743985, -0.13870580174852956, 0.017352262829093915, -0.09226662705513396, 0.24740538781684723, 0.07373003275797042, 0.17990410435507148, -0.024680761282188282, 0.2935822006515474, -0.42873794312475366, -0.07364387931037861, 0.06585514743107272, -0.1958949450705005, -0.1608207233519751, 0.23189319306132006, 0.2317144707003003, 0.09031557216837269, -0.24540629787546422, 0.11222249725580623, 0.029086059712459412], [-0.43066232608969734, 0.04753586169458102, 0.16925475239949225, -0.09412806306687431, 0.0024036598447662915, -0.0984489920993431, 0.0059366724661414835, -0.22647628759170968, -0.11304448426098973, -0.056505306297756824, 0.04035677081900248, 0.20429420428648876, -0.06321544459962306, 0.01026720994831772, -0.01629357019288921, 0.040325465889987686, 0.26042855412612703, -0.15849800900493485, 0.10910135606708889, -0.2085873582808891, -0.005272487820761489, -0.1681868409189636, -0.28848355640526263, -0.11786053555096554, 0.263674444740871, -0.2645666285092842, 0.06903312373187286, -0.14875726885911633, -0.2486128017917723, 0.28532476231656223, -0.328571483478076, -0.05590219006589268, -0.09938345200073698, -0.31673563568676505, 0.37956546736979335, -0.18735812410401295, -0.1899458141557121, 0.46041600924586695, 0.028744496116457668, -0.1898582879214641, 0.43697535066578663, 0.2948121085008322, -0.12598376914474937, -0.04129454695233327, 0.27697826489419203, -0.048817474890418225, -0.15173134939947713, -0.17051958426155503, 0.13337250510273638, 0.20990916145500713, 0.10133013682547197, 0.19990423686900882, 0.12257635659352119, 0.13282765302212382, -0.39849583048981496, 0.014247924265399696, 0.3192291482603044, -0.04294645617571022, 0.06518737035433828, -0.08801536331721317, 0.19175470779288115, 0.11161532607605132, -0.03199869594889259, -0.06388036079479065], [-0.049953009002152444, 0.40209303230140275, 0.019590818749922502, 0.010707815242196278, -0.15553829278821193, 0.05935743409087863, -0.08040751294483602, -0.15868081786832214, -0.15344803977226773, 0.25626502758869407, -0.29535493271711505, -0.07599062319006057, 0.12273108270502385, 0.005507828849135764, -0.22057741962429714, -0.28528203052304935, -0.07411311204943964, 0.22652575918399526, -0.004173828224444071, -0.0032295448792955, -0.1715382938526759, 0.17731969330052097, 0.1811028641862223, -0.23214203940337683, -0.19526296686902417, -0.05742160699307349, 0.01452958978851882, -0.04548336050915283, 0.2007207053744273, -0.22714722622978886, 0.18149873081620763, -0.18548491293353303, 0.16975234866297728, -0.01889450086373474, 0.140607340687828, 0.08675238018990974, 0.08433161273593308, 0.021310137469139318, 0.027502427557520127, 0.021497892670754335, -0.12162402609345167, 0.3049329183877228, 0.048082217377056174, -0.015413351971564775, 0.24125342788183793, 0.10031855299951362, 0.06869142597904003, 0.1704287598185983, 0.29847967240058154, 0.04739193114389911, -0.31987222584278424, -0.1477801047590041, 0.05249848929338305, 0.02745166090868785, -0.1789571361475853, -0.13585040945551352, 0.07018302780740063, 0.039328599098103476, -0.038532651460889085, 0.01278653809421853, -0.20551440310822255, 0.060081170558383835, 0.042252197057655275, -0.03093452582492681], [-0.038404335201952966, 0.016626438762473515, -0.3129908795252389, -0.29372414777996375, -0.2529129180612271, 0.0211686706484734, -0.061830117047008415, -0.2725481442493442, -0.26549311794297636, -0.15736742296447012, -0.36902600273523234, 0.019032790674999366, -0.22293348217779713, -0.07322470529504596, -0.17150136701890029, -0.3042426465234269, -0.3225023189883053, -0.14438532549036948, -0.003518831921759831, -0.14988081937268463, -0.06300953419333052, -0.08358972185221195, 0.09249767617043508, 0.19044042705411432, 0.1045920241494413, -0.12606257516197242, -0.16231312279255805, 0.15781786199557488, 0.18049166397246347, -0.2247107692526787, 0.057076853095549836, -0.028129875141766517, -0.06779085297239631, 0.15973973971600258, -0.15951580438198384, -0.39919163555963805, 0.05502307738507274, -0.09179228899962008, -0.1266852428473506, -0.3375139613692929, 0.14563593363186794, -0.12191266780388219, -0.14990233436912087, 0.13659466098474407, 0.04578278605670051, 0.17869004678318842, 0.014797448036116002, 0.018877085275707306, 0.06572996546975976, 0.13355023679293426, 0.4717544471392904, 0.13130481244713998, 0.19043550651192112, 0.15280863482302054, -0.0069109557764004854, 0.0296346291495002, -0.11100064011456993, 0.18499705753657003, -0.32957827520771804, -0.1721443946576492, 0.12445627479830289, 0.04621371101885087, 0.1254549115046339, -0.27563041905628294], [-0.03334606111332488, -0.18989534109344738, 0.01910176813337858, -0.03082094306970721, -0.08914181178533813, -0.012039756436099872, 0.0747252112988234, -0.05886542729592948, -0.08445633758867409, 0.10514234926251914, -0.15368110076415278, -0.08845445716010868, -0.01832610861582394, -0.1350290320349741, -0.0134061065358938, -0.006793291467471688, -0.01876423205138769, -0.24931047605984633, -0.20075435880457254, 0.02632544828493815, -0.0465362927737235, -0.22844351209717312, 0.2968902691112715, 0.14109908959996126, -0.10762097516909841, -0.2580865086737662, -0.19276629074592477, -0.08857908488092678, -0.02504857504119482, -0.20415453480953483, 0.1229631353635699, 0.1464098656015782, 0.3363703992011624, -0.06028473734750925, 0.24484388621449146, 0.057821917469985995, -0.0016957782704459, 0.209988829310019, -0.0010926366556450206, -0.18272497116714598, -0.03892621487402252, -0.1597927332811703, 0.09730903847390332, -0.22399374986250498, -0.20212853286276955, 0.1443521271053719, 0.1936486659575932, 0.12408350767587331, -0.26856461409464216, 0.3266989643492966, -0.12145242233255232, -0.1670851618425045, -0.11093168965229286, -0.0023997350273788345, 0.11762010207551829, 0.08746148910990358, -0.2621795952944685, 0.04454788397817758, -0.1640317768751639, -0.13634431570294012, -0.2705367744140864, -0.17440114066270582, -0.21701827118774175, -0.4733854510775668], [0.21171216272229704, 0.25281794232381116, 0.16424724126869067, -0.07404728447387078, -0.10848599970178559, 0.09484693410857432, 0.22551550790828404, -0.26934970602972147, 0.13799630609832758, 0.13030114083307712, 0.19336714893851978, 0.18160212155831937, 0.1592765805798278, 0.14478740987317582, -0.24474222523130493, -0.016219832837000195, 0.040471385469524536, -0.17145694255338675, 0.2115052122358429, 0.06843118559407182, 0.15266048995249162, 0.07821177114620508, -0.05477697777673167, 0.10034576795769438, -0.12145590119284677, 0.3776775936792868, 0.26501826583454796, 0.08510925074428069, 0.029589815122558767, 0.1468894974336534, 0.32803065037496126, 0.022313648922756772, -0.302269950599689, -0.15888990122482885, -0.02644158318826009, 0.00016872336965335205, -0.08079095176542028, 0.17961197465600823, -0.20919785292322737, 0.027246317479796386, 0.047854873493332624, -0.1700445662878869, -0.01585726369361486, 0.20993805969762, 0.3757965279311149, 0.29968709366554075, -0.006243398668386305, 0.26229764293495267, 0.23881197219410374, -0.14727259507655527, 0.18572085921062087, 0.12615827272363855, 0.14352921440341107, 0.10301294961073194, 0.14918246765728818, -0.05382743343601608, -0.19259970263189197, 0.21029313303794908, 0.052041306192795456, -0.009768423882050277, 0.3039772524588023, 0.09814394466718039, 0.13683458044507496, -0.19908262876235305], [-0.07772183728926978, 0.3224148360613079, -0.32245542956886003, 0.0020985131308969207, 0.26301672118568525, -0.08195170184205831, -0.12052955315653131, 0.22847194150595096, 0.12707225382949128, -0.1031589570961628, 0.3048162399955043, -0.09086319355692903, 0.2020667285287088, -0.013373029025267345, 0.038408192915315956, -0.25896080840749164, 0.056116178110656056, 0.1474669327898954, 0.09936218833279187, -0.025923687408814317, -0.03866469733321169, 0.2115752480628902, 0.18834421740288218, 0.08094879718671359, 0.14883362860210836, -0.34160117750418895, -0.009209338643716015, -0.22159487486634705, -0.06317396959883995, -0.01948456413998267, -0.11847389104175109, 0.32271153641838257, -0.12157694123383382, 0.14642178322338892, 0.1513717057986681, 0.16461028991741705, 0.02916856355024825, 0.035901450710149746, -0.07208893250277586, 0.09889856133214324, 0.1191164911382127, -0.052847780361217365, -0.26823637252302857, -0.25424700325222993, -0.12822086316948292, 0.36156201165164364, -0.11270866645636553, -0.1757258093656556, -0.1402917514539377, 0.016731411210308012, -0.23099235090610948, -0.035405659218054684, 0.20418635479370656, 0.0029743243435648016, -0.2626151031937283, 0.1144342213935832, -0.004967245303676699, -0.045812415841919106, -0.31372313845875394, -0.023320961663389213, 0.0042921305834759714, 0.14139104149230194, -0.2442220656061524, -0.1335522805695619]], [[0.03361723179785751, -0.1263528562089831, 0.030326538894952362, -0.0803454225306942, 0.0420156806166985, -0.05742802778251492, -0.03963319161346063, 0.1855380316473645], [0.08905593673698868, -0.043373902215342354, -0.03839569677177306, 0.10580185054849377, 0.198199244227965, -0.038811540449191544, 0.10299473857167873, -0.15420169567124878], [-0.05065076905921035, 0.2456741218632529, -0.020892908502632257, -0.05782132789615432, 0.04879136550923932, -0.2247565808561718, -0.023633080976464764, -0.07903752540907259], [0.08380318939605086, 0.04810487926495184, -0.11252539861176047, 0.08309795570300574, -0.10437003622688758, 0.08477078621347711, 0.25250931844897717, -0.09723463242702271], [0.028914619831004726, -0.15865007333715372, -0.020516655377748768, -0.20859754077940706, 0.08087619655033927, -0.10130488179431557, -0.02928723652984385, 3.949240921808744e-05], [0.09240834639163169, 0.1884535392901632, -0.18148456973471064, -0.041307456327278946, 0.14269604888769405, -0.045145143547098754, 0.3072695097897294, 0.09001799008985169], [0.10017289514459156, 0.13368062995174612, -0.06168484211712133, -0.055630318691761445, -0.1795573375087171, -0.083555966979937, 0.1702038312138857, -0.14478441761916974], [0.012820007775050664, 0.027518849681621875, 0.15796975885966233, -0.10138527089948263, 0.11409606720578462, -0.07010227475710032, -0.1320900145202078, 0.14631066821072283], [0.04732012725542869, -0.04985993624831739, 0.11059050672541999, 0.0646926580315915, 0.07289521344791713, -0.026453993373709333, -0.07584803516044578, 0.08430009377901747], [0.0472152956217144, 0.07362227013028401, -0.015076999833175963, -0.23169080978948822, 0.012677700366182666, 0.0593246471481266, 0.05142725760608576, 0.0150938151098061], [-0.22726957699427325, -0.013558053984439612, -0.1006159650370565, -0.15096850701155165, -0.0693578699021979, 0.030468409600121135, -0.13153537152828793, 0.10649303848345487], [0.3154930559404547, -0.23768592832414018, -0.11950087359156333, 0.0793298852819901, 0.0893956102685004, 0.09765705850428835, -0.08876196551076025, -0.34601412217668853], [0.045894714215089505, 0.02219939035232407, -0.18199794748094533, 0.019911755607414327, 0.1081640060504821, 0.050732921518685206, -0.06954775500051834, -0.16912535576398527], [-0.06963567918695965, 0.07546224018506256, -0.12622575024394603, -0.1232691486189683, -0.1795744674556476, -0.3146411421218172, -0.044687394728775656, -0.01574045794162154], [0.09143546872377327, -0.06699786363762258, 0.09996367316496652, 0.12424209563499068, 0.06385034614136258, 0.18524636069237926, 0.04845650056445452, -0.03642519926145508], [-0.07584315538718171, 0.03463647169623366, -0.11707574238346043, -0.009635532245055492, -0.03636061325449946, 0.06481555193920129, -0.10186812029497488, -0.27412317037139733], [0.07133975656688578, -0.31159922259970674, -0.11594989528247328, 0.05070647990368543, -0.13547559107176074, 0.04180908679379722, 0.05438918765946232, 0.22176267890458268], [0.07691122819759327, 0.04759692571310903, -0.08747455005416334, 0.05944756161149317, 0.07746060007369752, 0.027352458847304504, 0.15956462084524675, 0.11080592911607424], [0.027663102808709258, -0.12433998208820331, 0.20308405042960972, -0.20730350317084964, -0.2648542066199026, -0.012802694180311061, -0.06286503477523986, -0.0665361389319512], [-0.17451714898634324, 0.09863462797396988, 0.024465398409630194, 0.01659928377624838, -0.07164806423192405, -0.10076841951418883, 0.012037804679805024, 0.23142142938850957], [-0.08651570482099358, -0.0712669448260743, 0.18467306004094067, -0.10898292930428677, -0.097350662275759, -0.005785151144281932, 0.06097559971189459, 0.14690261844271718], [0.03293831212582363, -0.019899507170690795, -0.24216319074185996, -0.07321884862716341, 0.022180493256024048, 0.008145481573081897, 0.03801928627598094, 0.0002429067146200478], [-0.04008603917307021, 0.05908164038709085, 0.01850269451364703, 0.11508849035425539, -0.09275102665741843, -0.24809200583622604, 0.0667410979957473, 0.11341858377339364], [-0.06033232909012249, -0.25150591459143073, -0.1318943220395145, -0.0770499065491152, -0.00029681099065150056, 0.18392364784946988, -0.05825660537354065, 0.0748084243807944], [-0.037564001173561824, -0.03911206758954497, -0.009106362366182948, -0.0057206186814861395, -0.05839365807382302, 0.055727582637219705, 0.08504435223049996, -0.07962848657602027], [0.0051590029378785944, 0.08655853400674125, -0.10170813275460103, 0.18074509040300407, 0.05413348406502373, 0.09122246206922845, -0.017908459302682016, 0.06738557213837426], [-0.12089042122346062, 0.16841849749097845, 0.039945941258405754, 0.12482312985969439, -0.10812746061490831, -0.08943139598496383, 0.04556607775390447, -0.09061935878792385], [0.042062878845650166, 0.11538787648881575, 0.26347643555548844, -0.0707233104377951, -0.08462744582378441, 0.05961819917802327, 0.1627457453368567, 0.01860247576654776], [0.1532362173687842, -0.1631071850329732, -0.1755389690828085, 0.1258868924911994, 0.020557240478573557, -0.012132479093346648, 0.037183672325663, -0.010184867744249126], [-0.015948550119682027, -0.17041948963190764, 0.11991323872122163, 0.10986237066148126, 0.09455617147716572, 0.03861589079935964, -0.02848712858156437, -0.15154383426629725], [0.0406457735978545, 0.20962433956127857, -0.18758721983158214, 0.1385932826076622, -0.022268903029154193, 0.03519073071318898, -0.04846519156946843, 0.019956546713309736], [0.1280733602188984, 0.11514695407396067, 0.12744507942112596, 0.047976454055100336, 0.18566217068662372, 0.15893713252475053, 0.09137940218780995, -0.0010764815710089875], [-0.08074168664985476, 0.047273571413845625, -0.013373660492971801, 0.09918282112397392, 0.0018666245348992847, -0.07314591408596828, 0.06319301936200653, -0.0296324795667198], [0.11392423814952789, -0.03596755150834907, 0.14913981633378942, 0.14648074359342506, -0.003809176268339566, 0.16142403276689854, 0.0026620541156604093, -0.0014675035707794179], [-0.1676025917243994, 0.08324735973552608, 0.03988318130554465, 0.31687030915689596, 0.03881409083680252, -0.08058551622616424, 0.018997162834354486, 0.20459922736421207], [-0.06703431257409308, -0.017778248903163308, -0.16951806853933882, 0.07281949010454386, 0.06727256069998856, 0.04214675454141325, -0.11487962895519639, -0.25759664223370826], [-0.044097263552669734, -0.007964492759585558, -0.25081606821462443, 0.1444957219618365, -0.0635204909818169, -0.03668047062690962, -0.1747336167142359, 0.3557381672419863], [-0.10394843998294861, 0.07573767882424898, 0.21146930009641432, 0.16172880863529532, -0.042414093385242026, -0.1490492134143958, -0.04813488564993585, 0.0021523189242736262], [0.1199056610886279, 0.060930073257983074, -0.05418181238320581, 0.010566836661606495, 0.10003214828447886, 0.0005322206033220763, -0.18895428873763528, -0.19603122425448993], [0.08858279865698794, 0.19634273571830244, 0.0372009633966875, 0.13929435147193478, 0.14066789907059835, -0.10149003374676416, 0.07227461347762885, -0.293908249852829], [0.14479635564037946, -0.10448690839733503, -0.029586034204838817, 0.2064669693485131, 0.14197239879368664, -0.007358734172990075, -0.012025208034846569, 0.198557307228722], [-0.22178096205209163, -0.22206428903392714, -0.14154919390514564, 0.13883159681141272, -0.08762844059028468, -0.31899383574038, -0.11146921925427125, 0.04552540105526786], [0.08159540588918285, -0.08611957769942431, -0.1880349102998419, 0.024229219859264135, -0.025501487034202158, 0.04043732622521961, -0.1261988408604865, 0.05633701646905457], [0.025498468424682296, 0.050687933970615315, -0.08812979090715951, -0.07186122130233524, 0.039465780635150396, -0.06929711317515351, 0.2482243219902349, -0.03565837597467599], [0.1534205026579361, -0.018013032262403642, -0.03724185083289219, 0.14789868014300261, -0.03796730018525311, -0.019539516541586158, -0.17051835061536946, -0.14393703483559392], [-0.14992288251035998, -0.004996803808798086, 0.043502977956856495, 0.05761376941881355, -0.1272658117898623, -0.026460104328284335, 0.07874845303288232, 0.13828910262356814], [-0.19137264012571806, 0.07128463052058624, 0.2452418090655299, 0.13338393783184233, -0.1454820402786396, -0.007734573873770078, -0.13290945275478533, 0.0964627798263678], [-0.041183254852656045, -0.09385042095032556, 0.05318769692721617, 0.1862282520001562, -0.03913609532747756, -0.1625084401578075, 0.0941332695173748, -0.021627034128215282], [0.057107202714318996, -0.19689523625840202, 0.007830646313587035, 0.03796633226609913, 0.21102302868550396, 0.03911131566171903, -0.08580269975027378, -0.11474378144300851], [-0.07702861365084017, -0.049909401678729294, 0.12255052214440382, 0.13733689191072573, 0.061978418166340796, 0.04933694361799996, -0.15843234458208935, 0.11059210253809634], [0.2716783071837813, -0.13200837819831035, -0.13174623644959715, -0.2084149701220231, 0.054525616844478916, 0.21198317759262497, 0.19978881809580953, 0.26768312168142533], [-0.025850472026949362, 0.12502669462938373, 0.04749433345586501, 0.02683614908535391, -0.21260436906202015, 0.11434902978503259, -0.06509369623306188, 0.006347376246095678], [-0.196225905172518, 0.13411025525791057, -0.0250831330081677, 0.02028601500265691, 0.1229603910305478, 0.2859278787749193, 0.000704671927778481, -0.19195832290956855], [0.017759216574877723, -0.04546897297720983, -0.011188746682458844, 0.1672270778718853, -0.02350880924505112, -0.004084430285247733, 0.05886514609401064, -0.142646321536709], [0.07570124460194168, -0.05897759711292774, 0.09292382684549087, -0.06516154364231194, -0.18753650388624418, -0.14749489511587474, -0.04940353013272045, -0.09133318113506926], [-0.063578780122869, 0.04273055112352678, -0.16073121633209175, -0.02685299745712325, 0.050518622126983576, -0.017766331468329614, -0.00023896350976469218, -0.08449132899271053], [0.04519057208384357, 0.03932843206440781, 0.13498310851228812, -0.0859063237269059, -0.06781166444788131, 0.05109869612940713, 0.05295743578020194, -0.02034967349264413], [-0.07799720974060932, 0.04592113721375484, 0.054088550967380494, 0.08041790089767654, -0.1855579935898731, 0.018265307623140783, 0.11080555927222925, -0.03520011617509646], [-0.28924095281277085, -0.008728153173897364, 0.012743501052075888, -0.019459456927771426, -0.13064970815512117, 0.022235403106208824, -0.055658632710673936, -0.17119189505133656], [0.06598295626736846, 0.1639203835361757, 0.17578359598560303, 0.06818994134733929, 0.16998781623036938, 0.01697486805447996, 0.20064860843296148, 0.06777011785017303], [0.10326160245065914, -0.13763060301458616, 0.023843034452676586, 0.13528366486934462, 0.03205937852501977, 0.03502681931014539, -0.0672767983766026, 0.11032722970282809], [-0.1623156979572236, 0.2923881632636902, 0.08908061437733798, -0.05580809132347117, -0.22071807704791466, 0.12538884179953771, 0.11388385936944796, 0.0025383352356155653], [-0.11866535596325749, -0.014977738098723256, -0.04417907625554758, -0.001118966992136934, 0.07167472056023544, -0.03932178638361958, 0.0632603186622356, 0.009903731504505582], [0.022317917743679076, -0.232397562322659, -0.12903591164357878, -0.24303894405128149, -0.00981492112393437, -0.11883653838217881, 0.07848920273980485, 0.044982972947655804]]], "biases": [[-0.007800170107309509, -5.161030839917209e-06, -0.0002953119143598704, 0.004929110329934484, 0.0, -0.002586342801481419, -0.0016230173236537278, 0.0007153073172850117, 0.004339079893324028, -0.0066736951436861544, -0.0022126557929690776, -0.008635993219511617, -0.0043154772420005245, -0.0001140294148474265, -0.0001232283208702773, 4.2807989003478064e-05, 0.0010813309166180535, 0.004435191030919213, -0.0002610279083011424, -0.0007005799321788018, -0.00194649524688964, 0.00028005485289570725, 8.692376111051043e-05, -0.005063653968343613, 0.0009215913190996561, -0.006958047463816787, -0.0038293735188476273, -0.004751921205608971, 0.006091593915749892, -3.237003417081191e-05, -0.010237435798447225, -0.000230894790398634], [0.0005409104579934811, -0.0045756411092223994, -0.0031151251280427113, 0.0001378814502285262, -0.0023573979308327752, 2.9910211153241596e-05, -0.0008558115819023314, 0.0, 0.0030397134247514856, 0.0052953089337186895, -0.00808210716742064, -0.009033951573872021, -0.009266866943130959, -0.00506848443744905, 0.004835859069675448, -0.00026670882234282556, -7.948774178509944e-05, 0.004553095912006042, 0.0018312464052025325, 0.000537940789419342, 0.0008347368831504543, -0.004628532657462488, 1.830542977892931e-05, -0.0038216223780968115, -0.003320233704404527, 0.00011542483019622139, -0.0021433096543564487, 0.004094135635068366, -2.660933604199476e-05, -0.0014147410310362126, -0.002018924562004637, 0.0067781319963832265, -0.004641266382887917, 0.0030241144001710778, -0.0007432704641106907, -0.006164656779340932, -0.004540926499462213, -0.0007795053959315094, -0.00019591531712393113, 5.1973917904338074e-05, 0.0047406782616415104, -0.0032805870883692786, -0.005341700352066185, -0.0004183892682982362, -0.003499436185820363, 2.8498277466093576e-05, 0.0004805566392541272, -0.00044872516676145086, -0.0026271721958796663, 0.0010218193257045545, 0.006779612854459357, 0.00010548049732024452, -0.006548273756743093, -0.0026598743417167643, 0.0, -0.009515802074415786, 0.005257977299508275, -0.0009812010411548513, -0.011338089677992363, 0.014292867538950135, 0.0013200681342174683, 0.001012007094038231, -0.004433127095597064, -0.0007168791283847311], [0.030686010352634668, 0.01838340924397902, 0.032614021456629186, -0.007361432383197121, 0.004339321637977697, 0.015056065925058454, 0.01349094307572368, 0.028865132691843803]]}